<?xml version="1.0"?>
<opencv_storage>
<cascade>
  <stageType>BOOST</stageType>
  <featureType>HAAR</featureType>
  <height>50</height>
  <width>50</width>
  <stageParams>
    <boostType>GAB</boostType>
    <minHitRate>9.9500000476837158e-01</minHitRate>
    <maxFalseAlarm>5.0000000000000000e-01</maxFalseAlarm>
    <weightTrimRate>9.4999999999999996e-01</weightTrimRate>
    <maxDepth>1</maxDepth>
    <maxWeakCount>100</maxWeakCount></stageParams>
  <featureParams>
    <maxCatCount>0</maxCatCount>
    <featSize>1</featSize>
    <mode>BASIC</mode></featureParams>
  <stageNum>7</stageNum>
  <stages>
    <!-- stage 0 -->
    <_>
      <maxWeakCount>2</maxWeakCount>
      <stageThreshold>3.2634243369102478e-02</stageThreshold>
      <weakClassifiers>
        <_>
          <internalNodes>
            0 -1 9 -2.1124478429555893e-02</internalNodes>
          <leafValues>
            9.1483110189437866e-01 -7.3983740806579590e-01</leafValues></_>
        <_>
          <internalNodes>
            0 -1 12 2.2436184808611870e-02</internalNodes>
          <leafValues>
            -8.8219690322875977e-01 8.3191651105880737e-01</leafValues></_></weakClassifiers></_>
    <!-- stage 1 -->
    <_>
      <maxWeakCount>2</maxWeakCount>
      <stageThreshold>-1.8225035071372986e-01</stageThreshold>
      <weakClassifiers>
        <_>
          <internalNodes>
            0 -1 0 4.7692783176898956e-02</internalNodes>
          <leafValues>
            -9.1558444499969482e-01 8.5175204277038574e-01</leafValues></_>
        <_>
          <internalNodes>
            0 -1 14 1.7625320702791214e-02</internalNodes>
          <leafValues>
            -9.1352868080139160e-01 7.3333406448364258e-01</leafValues></_></weakClassifiers></_>
    <!-- stage 2 -->
    <_>
      <maxWeakCount>2</maxWeakCount>
      <stageThreshold>-1.4649569988250732e-01</stageThreshold>
      <weakClassifiers>
        <_>
          <internalNodes>
            0 -1 2 1.0268528014421463e-02</internalNodes>
          <leafValues>
            -7.8823530673980713e-01 8.7042254209518433e-01</leafValues></_>
        <_>
          <internalNodes>
            0 -1 4 1.6278047114610672e-03</internalNodes>
          <leafValues>
            -9.9509078264236450e-01 6.4173960685729980e-01</leafValues></_></weakClassifiers></_>
    <!-- stage 3 -->
    <_>
      <maxWeakCount>4</maxWeakCount>
      <stageThreshold>-7.4802003800868988e-02</stageThreshold>
      <weakClassifiers>
        <_>
          <internalNodes>
            0 -1 15 -5.0585512071847916e-03</internalNodes>
          <leafValues>
            7.8711485862731934e-01 -6.3095235824584961e-01</leafValues></_>
        <_>
          <internalNodes>
            0 -1 13 6.0814023017883301e-03</internalNodes>
          <leafValues>
            -8.5148119926452637e-01 6.0795265436172485e-01</leafValues></_>
        <_>
          <internalNodes>
            0 -1 1 4.4194102287292480e-02</internalNodes>
          <leafValues>
            -7.7988511323928833e-01 6.7177945375442505e-01</leafValues></_>
        <_>
          <internalNodes>
            0 -1 10 -2.1040730178356171e-02</internalNodes>
          <leafValues>
            7.3585206270217896e-01 -6.7329996824264526e-01</leafValues></_></weakClassifiers></_>
    <!-- stage 4 -->
    <_>
      <maxWeakCount>2</maxWeakCount>
      <stageThreshold>5.8386962860822678e-02</stageThreshold>
      <weakClassifiers>
        <_>
          <internalNodes>
            0 -1 11 1.9069138914346695e-02</internalNodes>
          <leafValues>
            -5.3807103633880615e-01 8.5670733451843262e-01</leafValues></_>
        <_>
          <internalNodes>
            0 -1 7 2.8265954460948706e-04</internalNodes>
          <leafValues>
            5.9645801782608032e-01 -1.</leafValues></_></weakClassifiers></_>
    <!-- stage 5 -->
    <_>
      <maxWeakCount>2</maxWeakCount>
      <stageThreshold>-1.9251239299774170e-01</stageThreshold>
      <weakClassifiers>
        <_>
          <internalNodes>
            0 -1 8 -2.0100359688512981e-04</internalNodes>
          <leafValues>
            -9.7297298908233643e-01 8.4615385532379150e-01</leafValues></_>
        <_>
          <internalNodes>
            0 -1 5 3.2983992248773575e-02</internalNodes>
          <leafValues>
            -6.8641316890716553e-01 7.8046059608459473e-01</leafValues></_></weakClassifiers></_>
    <!-- stage 6 -->
    <_>
      <maxWeakCount>2</maxWeakCount>
      <stageThreshold>-3.6475136876106262e-01</stageThreshold>
      <weakClassifiers>
        <_>
          <internalNodes>
            0 -1 6 -3.3388318843208253e-04</internalNodes>
          <leafValues>
            -9.6652722358703613e-01 7.1639949083328247e-01</leafValues></_>
        <_>
          <internalNodes>
            0 -1 3 1.2455125898122787e-01</internalNodes>
          <leafValues>
            -8.2106578350067139e-01 6.0177582502365112e-01</leafValues></_></weakClassifiers></_></stages>
  <features>
    <_>
      <rects>
        <_>
          0 12 27 22 -1.</_>
        <_>
          9 12 9 22 3.</_></rects>
      <tilted>0</tilted></_>
    <_>
      <rects>
        <_>
          0 14 12 25 -1.</_>
        <_>
          6 14 6 25 2.</_></rects>
      <tilted>0</tilted></_>
    <_>
      <rects>
        <_>
          0 19 8 13 -1.</_>
        <_>
          4 19 4 13 2.</_></rects>
      <tilted>0</tilted></_>
    <_>
      <rects>
        <_>
          2 11 46 39 -1.</_>
        <_>
          2 24 46 13 3.</_></rects>
      <tilted>0</tilted></_>
    <_>
      <rects>
        <_>
          10 11 27 26 -1.</_>
        <_>
          10 24 27 13 2.</_></rects>
      <tilted>0</tilted></_>
    <_>
      <rects>
        <_>
          11 0 21 12 -1.</_>
        <_>
          11 6 21 6 2.</_></rects>
      <tilted>0</tilted></_>
    <_>
      <rects>
        <_>
          12 12 3 20 -1.</_>
        <_>
          12 22 3 10 2.</_></rects>
      <tilted>0</tilted></_>
    <_>
      <rects>
        <_>
          13 14 2 18 -1.</_>
        <_>
          13 23 2 9 2.</_></rects>
      <tilted>0</tilted></_>
    <_>
      <rects>
        <_>
          13 15 2 16 -1.</_>
        <_>
          13 23 2 8 2.</_></rects>
      <tilted>0</tilted></_>
    <_>
      <rects>
        <_>
          14 40 22 10 -1.</_>
        <_>
          14 45 22 5 2.</_></rects>
      <tilted>0</tilted></_>
    <_>
      <rects>
        <_>
          15 42 18 8 -1.</_>
        <_>
          15 46 18 4 2.</_></rects>
      <tilted>0</tilted></_>
    <_>
      <rects>
        <_>
          17 0 14 10 -1.</_>
        <_>
          17 5 14 5 2.</_></rects>
      <tilted>0</tilted></_>
    <_>
      <rects>
        <_>
          17 0 15 21 -1.</_>
        <_>
          17 7 15 7 3.</_></rects>
      <tilted>0</tilted></_>
    <_>
      <rects>
        <_>
          26 9 18 10 -1.</_>
        <_>
          26 9 9 5 2.</_>
        <_>
          35 14 9 5 2.</_></rects>
      <tilted>0</tilted></_>
    <_>
      <rects>
        <_>
          29 12 21 16 -1.</_>
        <_>
          36 12 7 16 3.</_></rects>
      <tilted>0</tilted></_>
    <_>
      <rects>
        <_>
          44 20 6 12 -1.</_>
        <_>
          47 20 3 12 2.</_></rects>
      <tilted>0</tilted></_></features></cascade>
</opencv_storage>
